digraph Tree {
node [shape=box] ;
0 [label="Overall Qual <= 7.5\nmse = 6032184943.253\nsamples = 2047\nvalue = 179343.2"] ;
1 [label="Overall Qual <= 5.5\nmse = 2381604076.047\nsamples = 1722\nvalue = 156110.018"] ;
0 -> 1 [labeldistance=2.5, labelangle=45, headlabel="True"] ;
2 [label="Overall Qual <= 4.5\nmse = 1045455934.874\nsamples = 780\nvalue = 125499.932"] ;
1 -> 2 ;
3 [label="Gr Liv Area <= 843.0\nmse = 1061232750.313\nsamples = 198\nvalue = 100637.859"] ;
2 -> 3 ;
4 [label="Overall Qual <= 2.5\nmse = 475925001.778\nsamples = 43\nvalue = 71072.419"] ;
3 -> 4 ;
5 [label="mse = 513183770.484\nsamples = 8\nvalue = 43090.625"] ;
4 -> 5 ;
6 [label="Garage Cars <= 0.5\nmse = 247534927.277\nsamples = 35\nvalue = 77468.257"] ;
4 -> 6 ;
7 [label="mse = 251882710.64\nsamples = 15\nvalue = 68572.6"] ;
6 -> 7 ;
8 [label="mse = 140412400.0\nsamples = 20\nvalue = 84140.0"] ;
6 -> 8 ;
9 [label="Fireplaces <= 0.5\nmse = 913838743.225\nsamples = 155\nvalue = 108839.884"] ;
3 -> 9 ;
10 [label="Year Remod/Add <= 1955.5\nmse = 636132409.824\nsamples = 134\nvalue = 104272.761"] ;
9 -> 10 ;
11 [label="mse = 571453500.924\nsamples = 58\nvalue = 94748.845"] ;
10 -> 11 ;
12 [label="mse = 563442919.329\nsamples = 76\nvalue = 111541.013"] ;
10 -> 12 ;
13 [label="Year Built <= 1945.5\nmse = 1703481151.202\nsamples = 21\nvalue = 137982.476"] ;
9 -> 13 ;
14 [label="mse = 627630617.284\nsamples = 9\nvalue = 113522.222"] ;
13 -> 14 ;
15 [label="mse = 1725095019.889\nsamples = 12\nvalue = 156327.667"] ;
13 -> 15 ;
16 [label="Gr Liv Area <= 1369.0\nmse = 758257725.037\nsamples = 582\nvalue = 133958.163"] ;
2 -> 16 ;
17 [label="Year Built <= 1946.5\nmse = 424820825.398\nsamples = 415\nvalue = 127016.954"] ;
16 -> 17 ;
18 [label="Gr Liv Area <= 1249.0\nmse = 434633417.062\nsamples = 106\nvalue = 110389.066"] ;
17 -> 18 ;
19 [label="mse = 343412981.946\nsamples = 77\nvalue = 104596.636"] ;
18 -> 19 ;
20 [label="mse = 351211105.826\nsamples = 29\nvalue = 125768.966"] ;
18 -> 20 ;
21 [label="Gr Liv Area <= 989.0\nmse = 294071775.495\nsamples = 309\nvalue = 132721.019"] ;
17 -> 21 ;
22 [label="mse = 139136171.484\nsamples = 132\nvalue = 125534.97"] ;
21 -> 22 ;
23 [label="mse = 342386475.994\nsamples = 177\nvalue = 138080.107"] ;
21 -> 23 ;
24 [label="Full Bath <= 2.5\nmse = 1169596838.236\nsamples = 167\nvalue = 151207.275"] ;
16 -> 24 ;
25 [label="Lot Area <= 11571.5\nmse = 880898154.015\nsamples = 159\nvalue = 147935.258"] ;
24 -> 25 ;
26 [label="mse = 566176458.911\nsamples = 114\nvalue = 140999.833"] ;
25 -> 26 ;
27 [label="mse = 1247643655.556\nsamples = 45\nvalue = 165505.0"] ;
25 -> 27 ;
28 [label="mse = 2465623043.234\nsamples = 8\nvalue = 216238.625"] ;
24 -> 28 ;
29 [label="Gr Liv Area <= 1491.5\nmse = 2069711430.817\nsamples = 942\nvalue = 181455.949"] ;
1 -> 29 ;
30 [label="Garage Cars <= 1.5\nmse = 1004477881.175\nsamples = 446\nvalue = 156202.063"] ;
29 -> 30 ;
31 [label="Lot Area <= 7390.5\nmse = 570764350.444\nsamples = 130\nvalue = 128072.692"] ;
30 -> 31 ;
32 [label="Lot Area <= 2005.5\nmse = 311577666.667\nsamples = 60\nvalue = 115400.0"] ;
31 -> 32 ;
33 [label="mse = 86608402.367\nsamples = 13\nvalue = 96907.692"] ;
32 -> 33 ;
34 [label="mse = 253054884.563\nsamples = 47\nvalue = 120514.894"] ;
32 -> 34 ;
35 [label="Year Built <= 1952.0\nmse = 537279953.571\nsamples = 70\nvalue = 138935.0"] ;
31 -> 35 ;
36 [label="mse = 496914488.636\nsamples = 22\nvalue = 123925.0"] ;
35 -> 36 ;
37 [label="mse = 405189578.993\nsamples = 48\nvalue = 145814.583"] ;
35 -> 37 ;
38 [label="Year Built <= 1980.5\nmse = 723469339.35\nsamples = 316\nvalue = 167774.272"] ;
30 -> 38 ;
39 [label="Lot Area <= 9010.0\nmse = 568684235.543\nsamples = 128\nvalue = 153598.859"] ;
38 -> 39 ;
40 [label="mse = 359202469.136\nsamples = 54\nvalue = 141077.778"] ;
39 -> 40 ;
41 [label="mse = 523659247.711\nsamples = 74\nvalue = 162735.865"] ;
39 -> 41 ;
42 [label="Gr Liv Area <= 1206.0\nmse = 598894686.779\nsamples = 188\nvalue = 177425.617"] ;
38 -> 42 ;
43 [label="mse = 205850587.139\nsamples = 48\nvalue = 156204.833"] ;
42 -> 43 ;
44 [label="mse = 526320895.287\nsamples = 140\nvalue = 184701.314"] ;
42 -> 44 ;
45 [label="Gr Liv Area <= 2011.0\nmse = 1938434752.675\nsamples = 496\nvalue = 204164.081"] ;
29 -> 45 ;
46 [label="Year Built <= 1964.5\nmse = 1323170605.326\nsamples = 374\nvalue = 193603.283"] ;
45 -> 46 ;
47 [label="Lot Area <= 11205.5\nmse = 1291537290.432\nsamples = 90\nvalue = 164953.889"] ;
46 -> 47 ;
48 [label="mse = 454878712.695\nsamples = 68\nvalue = 151049.265"] ;
47 -> 48 ;
49 [label="mse = 1432878533.058\nsamples = 22\nvalue = 207931.818"] ;
47 -> 49 ;
50 [label="Overall Qual <= 6.5\nmse = 990657586.336\nsamples = 284\nvalue = 202682.317"] ;
46 -> 50 ;
51 [label="mse = 521940418.457\nsamples = 120\nvalue = 187901.958"] ;
50 -> 51 ;
52 [label="mse = 1056811332.778\nsamples = 164\nvalue = 213497.213"] ;
50 -> 52 ;
53 [label="Year Built <= 1924.0\nmse = 2434533257.672\nsamples = 122\nvalue = 236538.984"] ;
45 -> 53 ;
54 [label="mse = 2462154897.662\nsamples = 15\nvalue = 182991.933"] ;
53 -> 54 ;
55 [label="Year Remod/Add <= 1989.5\nmse = 1972356019.72\nsamples = 107\nvalue = 244045.579"] ;
53 -> 55 ;
56 [label="mse = 2071621224.62\nsamples = 38\nvalue = 221195.895"] ;
55 -> 56 ;
57 [label="mse = 1471796291.669\nsamples = 69\nvalue = 256629.464"] ;
55 -> 57 ;
58 [label="Overall Qual <= 8.5\nmse = 7360999439.142\nsamples = 325\nvalue = 302443.323"] ;
0 -> 58 [labeldistance=2.5, labelangle=-45, headlabel="False"] ;
59 [label="Gr Liv Area <= 1920.5\nmse = 3934655285.351\nsamples = 232\nvalue = 271330.875"] ;
58 -> 59 ;
60 [label="Gr Liv Area <= 1416.5\nmse = 2097162591.729\nsamples = 135\nvalue = 242638.548"] ;
59 -> 60 ;
61 [label="Year Remod/Add <= 1993.5\nmse = 393320960.999\nsamples = 29\nvalue = 200348.966"] ;
60 -> 61 ;
62 [label="mse = 291164540.816\nsamples = 14\nvalue = 189821.429"] ;
61 -> 62 ;
63 [label="mse = 288682118.222\nsamples = 15\nvalue = 210174.667"] ;
61 -> 63 ;
64 [label="Fireplaces <= 0.5\nmse = 1940166216.187\nsamples = 106\nvalue = 254208.34"] ;
60 -> 64 ;
65 [label="Garage Cars <= 2.5\nmse = 1895798291.499\nsamples = 30\nvalue = 228283.033"] ;
64 -> 65 ;
66 [label="mse = 874385034.014\nsamples = 21\nvalue = 208814.286"] ;
65 -> 66 ;
67 [label="mse = 1331068184.543\nsamples = 9\nvalue = 273710.111"] ;
65 -> 67 ;
68 [label="Year Remod/Add <= 2006.5\nmse = 1587640675.776\nsamples = 76\nvalue = 264442.013"] ;
64 -> 68 ;
69 [label="mse = 1084501850.943\nsamples = 48\nvalue = 254827.625"] ;
68 -> 69 ;
70 [label="mse = 2020051869.361\nsamples = 28\nvalue = 280923.821"] ;
68 -> 70 ;
71 [label="Lot Area <= 13671.5\nmse = 3751616569.137\nsamples = 97\nvalue = 311263.495"] ;
59 -> 71 ;
72 [label="Gr Liv Area <= 2536.0\nmse = 2548022013.568\nsamples = 77\nvalue = 297762.584"] ;
71 -> 72 ;
73 [label="Garage Cars <= 2.5\nmse = 2174473769.167\nsamples = 59\nvalue = 286072.678"] ;
72 -> 73 ;
74 [label="mse = 2166459790.166\nsamples = 23\nvalue = 259389.913"] ;
73 -> 74 ;
75 [label="mse = 1434112936.389\nsamples = 36\nvalue = 303120.0"] ;
73 -> 75 ;
76 [label="Gr Liv Area <= 2720.5\nmse = 1856322969.472\nsamples = 18\nvalue = 336079.5"] ;
72 -> 76 ;
77 [label="mse = 1193331926.29\nsamples = 10\nvalue = 321946.1"] ;
76 -> 77 ;
78 [label="mse = 2123256473.438\nsamples = 8\nvalue = 353746.25"] ;
76 -> 78 ;
79 [label="Year Remod/Add <= 1996.5\nmse = 4981933467.6\nsamples = 20\nvalue = 363242.0"] ;
71 -> 79 ;
80 [label="mse = 2780777343.75\nsamples = 8\nvalue = 317062.5"] ;
79 -> 80 ;
81 [label="mse = 4079875083.222\nsamples = 12\nvalue = 394028.333"] ;
79 -> 81 ;
82 [label="Gr Liv Area <= 2250.0\nmse = 7469772221.153\nsamples = 93\nvalue = 380057.172"] ;
58 -> 82 ;
83 [label="Gr Liv Area <= 1700.0\nmse = 2811835520.331\nsamples = 59\nvalue = 341706.356"] ;
82 -> 83 ;
84 [label="Gr Liv Area <= 1616.0\nmse = 618785203.82\nsamples = 17\nvalue = 293638.941"] ;
83 -> 84 ;
85 [label="mse = 525555000.0\nsamples = 8\nvalue = 282300.0"] ;
84 -> 85 ;
86 [label="mse = 485783214.222\nsamples = 9\nvalue = 303718.0"] ;
84 -> 86 ;
87 [label="Lot Area <= 12107.0\nmse = 2385775506.502\nsamples = 42\nvalue = 361162.214"] ;
83 -> 87 ;
88 [label="Year Remod/Add <= 2007.5\nmse = 1488285966.719\nsamples = 22\nvalue = 337412.909"] ;
87 -> 88 ;
89 [label="mse = 1398491570.248\nsamples = 11\nvalue = 318754.545"] ;
88 -> 89 ;
90 [label="mse = 881811296.017\nsamples = 11\nvalue = 356071.273"] ;
88 -> 90 ;
91 [label="Gr Liv Area <= 1944.0\nmse = 2070105861.647\nsamples = 20\nvalue = 387286.45"] ;
87 -> 91 ;
92 [label="mse = 762722492.84\nsamples = 10\nvalue = 361242.6"] ;
91 -> 92 ;
93 [label="mse = 2020924984.81\nsamples = 10\nvalue = 413330.3"] ;
91 -> 93 ;
94 [label="Fireplaces <= 1.5\nmse = 8571522392.516\nsamples = 34\nvalue = 446607.118"] ;
82 -> 94 ;
95 [label="Bedroom AbvGr <= 3.5\nmse = 8755113954.658\nsamples = 26\nvalue = 428136.731"] ;
94 -> 95 ;
96 [label="mse = 6118364453.867\nsamples = 15\nvalue = 391007.0"] ;
95 -> 96 ;
97 [label="mse = 7907205474.512\nsamples = 11\nvalue = 478768.182"] ;
95 -> 97 ;
98 [label="mse = 3262643734.109\nsamples = 8\nvalue = 506635.875"] ;
94 -> 98 ;
}